{"index": 0, "filename": "fractal_000000.png", "seed": 1911030005, "function_id": 0, "family": "mandelbrot", "viewport": {"center_x": -0.7916562840083223, "center_y": 0.20933752800935146, "scale": 0.35960876595045543, "rotation": 4.80840655373084}, "params": {"palette": {"hue": 0.053821018802222675, "hue_scale": 0.6254498409657642, "angle_mix": -0.22093973251093119, "sat": 0.6450851834014611, "val": 1.0179911871964054, "contrast": 1.3116724990135282, "gamma": 0.9159446386782637, "background": 0.06558036492744017}, "max_iter": 324, "power": 4, "bailout": 15.233468194131573, "jitter": 0.008573761037407878, "trap": [0.5187865537558582, -0.4579792585998472]}}
{"index": 1, "filename": "fractal_000001.png", "seed": 879613214, "function_id": 0, "family": "mandelbrot", "viewport": {"center_x": -0.7936712522371041, "center_y": -0.3135276488887146, "scale": 0.4311630441246811, "rotation": 1.9082047927964685}, "params": {"palette": {"hue": 0.053821018802222675, "hue_scale": 0.6254498409657642, "angle_mix": -0.22093973251093119, "sat": 0.6450851834014611, "val": 1.0179911871964054, "contrast": 1.3116724990135282, "gamma": 0.9159446386782637, "background": 0.06558036492744017}, "max_iter": 324, "power": 4, "bailout": 15.233468194131573, "jitter": 0.008573761037407878, "trap": [0.5187865537558582, -0.4579792585998472]}}
{"index": 2, "filename": "fractal_000002.png", "seed": 563064227, "function_id": 1, "family": "flame", "viewport": {"center_x": -0.0501436925976777, "center_y": 0.16096922283298654, "scale": 0.6487321095777543, "rotation": 1.741739639791846}, "params": {"palette": {"hue": 0.7858593575262115, "hue_scale": 1.5614200219035657, "angle_mix": 0.17364184103669567, "sat": 0.8225537994377105, "val": 1.0598318995751732, "contrast": 0.9393072245073067, "gamma": 1.1031883258807045, "background": 0.03542393379537186}, "affines": [[-0.44599642031394393, -0.3567172314202331, 0.3567172314202331, -0.06448934511734838, 0.7831415812296798, -0.38862275795286405], [-0.023009796072034377, 0.525947514179946, -0.525947514179946, -0.20681447877359974, 0.3237479555661873, -0.7166716305053877], [0.5934752150827983, -0.2908400414089755, 0.2908400414089755, 0.8730827364856025, -0.15072968454721136, -0.3584585266328379], [-0.3403072258581613, -0.4359523389382761, 0.4359523389382761, 0.05304814857811624, -0.24265472870414817, 0.1554085216324037], [0.6315093228153457, 0.01303716597446638, -0.01303716597446638, 0.07919887602667353, 0.4569901604707869, -0.08297073271769462], [0.698663306911354, 0.598021346545314, -0.598021346545314, 0.17543298501200522, -0.5264583622999324, 0.31930836850177946]], "probs": [0.0031677118187291033, 0.38115211811140604, 0.0115823544677482, 0.02660991318034005, 0.0842909471752828, 0.49319695524649365], "variation_weights": [0.13170031286553538, 0.11074656073409216, 0.12420892631848274, 0.11244500396575412, 0.15432509877983197, 0.1259269901729385, 0.24064710716336513], "points": 1213142, "burn_in": 80, "blur_passes": 2}}
{"index": 3, "filename": "fractal_000003.png", "seed": 893577316, "function_id": 1, "family": "flame", "viewport": {"center_x": -0.17206112040434232, "center_y": -0.19147911727490716, "scale": 0.9114380776052748, "rotation": 1.4476327321629383}, "params": {"palette": {"hue": 0.7858593575262115, "hue_scale": 1.5614200219035657, "angle_mix": 0.17364184103669567, "sat": 0.8225537994377105, "val": 1.0598318995751732, "contrast": 0.9393072245073067, "gamma": 1.1031883258807045, "background": 0.03542393379537186}, "affines": [[-0.44599642031394393, -0.3567172314202331, 0.3567172314202331, -0.06448934511734838, 0.7831415812296798, -0.38862275795286405], [-0.023009796072034377, 0.525947514179946, -0.525947514179946, -0.20681447877359974, 0.3237479555661873, -0.7166716305053877], [0.5934752150827983, -0.2908400414089755, 0.2908400414089755, 0.8730827364856025, -0.15072968454721136, -0.3584585266328379], [-0.3403072258581613, -0.4359523389382761, 0.4359523389382761, 0.05304814857811624, -0.24265472870414817, 0.1554085216324037], [0.6315093228153457, 0.01303716597446638, -0.01303716597446638, 0.07919887602667353, 0.4569901604707869, -0.08297073271769462], [0.698663306911354, 0.598021346545314, -0.598021346545314, 0.17543298501200522, -0.5264583622999324, 0.31930836850177946]], "probs": [0.0031677118187291033, 0.38115211811140604, 0.0115823544677482, 0.02660991318034005, 0.0842909471752828, 0.49319695524649365], "variation_weights": [0.13170031286553538, 0.11074656073409216, 0.12420892631848274, 0.11244500396575412, 0.15432509877983197, 0.1259269901729385, 0.24064710716336513], "points": 1213142, "burn_in": 80, "blur_passes": 2}}
